encog,BasicNetwork,java,3.3.0,1,1466073721897
[BASIC]
[BASIC:PARAMS]
[BASIC:NETWORK]
beginTraining=0
connectionLimit=0
contextTargetOffset=0,0,0
contextTargetSize=0,0,0
endTraining=2
hasContext=f
inputCount=6
layerCounts=3,41,7
layerFeedCounts=3,40,6
layerContextCount=0,0,0
layerIndex=0,3,44
output=-14.1592264167,-8.921510969,-5.0021068151,0,0,1,0,1,0,1,0,0,1,1,1,1,0,0,1,1,1,1,0,0,1,1,1,1,1,0,0,0,0,1,0,1,0,0,0,0,0,0,1,1,-59,54,-379,150,-699,97,1
outputCount=3
weightIndex=0,123,403
weights=-0.8470361615,-0.6520276017,-0.1962973145,0.2831341197,-0.5190449781,0.4984604146,-0.761270113,0.7745628293,3.4257421965,-0.5041374324,1.0122028128,-1.5564096733,-0.0707978722,1.1918458934,-6.4084623091,-2.2520108292,-0.8190457139,-1.2522094591,-1.0746718191,-0.275161819,-2.4130438007,0.3190388103,2.869216274,-2.8465659576,1.1523129883,-1.3801785098,0.3301435207,9.2819095975,-1.579537166,14.3836024777,-0.4933272682,-0.4640027497,-4.6096389898,0.1955875661,-0.4890495398,-1.0962218193,5.6938871262,15.2591300935,-1.6610121819,0.421689626,-1.5980809979,-4.530430723,-0.8882044792,-0.2712704604,-1.87684844,0.4240429358,-0.0000185494,-0.2383529565,-0.6078485184,2.2754948167,-1.1422437779,-1.6318402249,-0.2792122089,0.5266621861,0.0228725469,-1.3076661945,-0.1945361309,0.3283355114,0.3972047223,-2.6301390348,-0.242617779,0.0763121672,-8.9754488383,3.0938249459,-0.4334432743,3.0378280514,-0.0439598337,-0.4871696053,0.8349632796,-5.4591075389,9.4106247283,-0.2921350175,-0.4347997509,-0.7153456965,-3.3832757412,1.9982530377,-0.7981326319,1.9466854023,-0.413151346,-0.9382036416,-0.0286627706,0.1471809033,-0.0014744795,0.4019075525,-1.893506938,3.2471468096,-1.5533714571,-0.8980269659,-0.380362175,-0.0000557534,-1.9577178273,-0.1913339048,-0.0093810739,0.279216293,-1.7033115039,18.3415950903,0.9778013245,-0.0023501353,-1.6192614422,-1.5249162411,6.5120200975,0.5055323379,0.5346176921,-0.0084444412,-0.0023052759,-3.1310525846,-0.3532555141,-0.7739794313,0.064478786,0.1069094061,0.000694024,-26.7640312666,0.4953347634,0.3100871639,1.5884675909,11.6605730858,-11.8307611604,0.0056651702,1.6758902157,0.2221360305,0.0026780632,-0.0007306995,-0.7295827419,20.1170395658,1365.3889267381,166.9397573382,-72.4744469811,160.7075872512,-539.8958809355,-250.954637379,36002.1563566245,-44868.0426296468,13479.336154698,-24237.3586210813,13477.4188841537,10816.3671486726,-12854.0459810844,-28593.860262961,47943.0370018656,-9132.9839418419,24521.8823528148,-9132.189718672,-10543.7598848538,8902.0200653026,30790.5722696339,-45772.304068171,9754.1891207509,-29739.8717242374,9752.7320783997,7671.2970175639,-10025.6553927017,-28455.625974231,44519.4885680429,-8158.6382418793,26985.6670558286,-8160.2823105863,-4765.0270891379,8801.8807690703,4958.304369436,10828.0170714238,8189.4507747191,8269.4349188643,8191.0628152264,13942.6633883892,-7841.7834889895,-1866.4387621016,1147.3569069543,-2829.2968912831,-100.1432750339,-2828.2837417062,-1095.5219721641,1539.8905128354,3726.9294417614,8700.3916746796,5021.2444728484,8525.0126557952,5026.6322371197,10684.8143183262,-4957.7336053887,8805.1024251468,-17048.5810741509,-2175.3228165537,-13505.6266708634,-2198.5979134983,-802.0221560848,4959.652082131,-99.1587985025,195.0960923065,-750.6105338628,-744.7064494459,-749.1543295121,-803.5917066958,1098.7875957641,3966.9514036176,9455.5238585093,-763.6124914639,4215.3503333561,471.6682049169,1103.836691473,3495.4265807377,-56.3885417231,-14.3344439928,-308.3091687025,-20.2538862642,-307.6763617505,-497.8178444625,296.0768887845,-32821.5272190378,49544.522934726,-11158.8711475628,25853.367020431,-11159.100395385,-6974.1836856803,11580.7763317327,207.1919139368,-1015.4263780749,1637.0680768701,-526.7948516192,1637.8862622029,-606.5850414023,-2837.3644266509,2001.4682178236,-2472.8138700981,4577.6273661243,-2363.6834474582,4576.4369197423,-915.9164279546,-4578.2184020403,3178.8930330399,-6038.9312568098,-5122.1968811901,-12340.7353049325,-4864.3869771477,-9407.2660884299,3477.4348833632,-41025.5470354918,52719.727124824,-17638.9939889933,33268.8295777463,-17638.5408770544,-8110.3221917736,18724.0886246495,-24982.6408101049,40072.1880149823,-10270.8114759106,21974.3679142784,-10270.8231006381,-5736.0638859529,10593.0761506618,-186.0788933914,43.6172993223,-770.2589129647,-1379.2154574445,-770.7584282357,-1338.8299385471,770.1817024739,763.9477462666,-30.7831860554,648.299474711,-146.958561152,649.4646725642,641.5663847944,-639.7711938607,25166.1881882091,-48428.2295686267,6220.6932204472,-23710.5396079843,6220.2787060107,4074.6591836531,-6206.9676197137,2773.636774077,3760.0326584108,-560.7853064723,2265.0766261004,-519.593865053,4820.4387168615,3878.5697704396,209.8804334281,-1531.4831484411,-38.3810106228,3803.0582542319,152.8674355652,3306.2756071231,4282.4163081192,-862.61219654,-2169.2546849447,-1533.8183546661,-971.9819190449,-1534.7222062795,-3239.0666230642,1471.3458552285,-4652.7661722764,4360.8752046069,-10556.101042054,5176.8248229471,-10555.7503841694,-354.1860901495,10651.2097276008,-34118.553996296,39720.840404608,-10414.55922563,14634.4276896538,-10414.2529844578,-12168.5052860772,9460.8646114804,2899.3422848682,2088.7913784871,2969.0428012034,4153.7324352527,2964.8628616621,814.9882889833,-4933.2907591029,1559.7378198929,-1627.841786575,2735.3180098215,-427.3551100427,2735.583136667,701.2477030181,1599.9138445182,-480.1687945256,-4616.6757922114,140.7352159597,36.1979082367,391.332552458,-1947.1840404379,-7265.8888612449,3173.8377419005,-5767.1061959016,2958.5794228652,-5098.6323952177,2957.924966581,-3112.9300928924,-3040.8731037458,-16.440374968,-9.773311193,-98.8090479698,40.2795412319,-99.2990847409,-128.8454877519,86.2086368288,38532.878794682,-47714.7441847444,14825.8061742195,-25496.793107464,14824.3355062936,14610.3824119056,-14829.8963342022,-3492.3435699249,-16813.4508224388,-10022.170713224,-17984.828729055,-10023.7256028358,-11937.4197457567,10028.5224763256,519.9073809797,-2453.3384086556,312.9325844811,-1639.4338812598,312.8163579807,-2806.6281958474,-312.829831032,-38.294049759,-1526.1385010619,64.7783855569,-948.6133445404,64.9800147068,633.5327458064,-381.0734623084,964.4765572668,-248.4228753279,-118.6790473576,-2152.1072374073,-203.0735285902,-424.8823193822,-448.6970127865,22403.4968179083,-35804.9836223426,8218.2191396916,-26226.7722912866,8220.0107884419,4374.7080084125,-6952.9839315227,-57.0559736013,-401.8730296101,201.1319528399,487.7149555718,200.7799801737,-221.7133824549,1520.4690200026,-55.0607178293,-527.9230056189,-139.8431607478,-405.5622019272,-147.9768996664,-994.7530531306,-2969.9750375335,750.5191742118,-606.1839197127,1364.5554509378,3653.4701882244,-284.9196396694,134.1809748301,448.7731634441
biasActivation=0,1,1
[BASIC:ACTIVATION]
"org.encog.engine.network.activation.ActivationLinear"
"org.encog.engine.network.activation.ActivationSigmoid"
"org.encog.engine.network.activation.ActivationLinear"
