encog,BasicNetwork,java,3.3.0,1,1465930391006
[BASIC]
[BASIC:PARAMS]
[BASIC:NETWORK]
beginTraining=0
connectionLimit=0
contextTargetOffset=0,0,0
contextTargetSize=0,0,0
endTraining=2
hasContext=f
inputCount=24
layerCounts=3,81,25
layerFeedCounts=3,80,24
layerContextCount=0,0,0
layerIndex=0,3,84
output=4.985905581,5.0000530637,4.5872860318,1,0,0,0,0,0,0,1,0,0,0,0,0,0,1,0,0,0,0,0,0,1,0,0,1,1,1,0,0,0,0,1,1,0,1,1,0,1,1,0,1,1,1,0,0,1,0,0,0,1,1,1,0,1,0,0,1,1,1,0,0,1,0,0.0004736227,1,1,1,0,0,1,1,0,1,0,0,0,0,1,1,1,1,10000,10000,-59,-38,10000,10000,10000,10000,10000,10000,-379,-2,10000,10000,10000,10000,10000,10000,-699,-75,10000,10000,10000,10000,1
outputCount=3
weightIndex=0,243,2243
weights=##0
##double#2243
   0.5597407027,-0.0000606317,-0.6933656556,-0.9720724206,-0.238541167,0.8976417436,0.3770983432,0.8525509103,-0.8195755209,-0.5409513117,-0.6500316512,-0.7573499968,-0.9806256771,-0.0365369702,0.7426191966,-0.6903922271,-0.9839270777,0.7317361005,-0.8561589276,-0.8501677238,0.4816379693,0.5566736611,-0.534052304,-0.6182430208,-1.3871743987,0.2962425221,0.5242009125,-0.1849882042,-0.146056627,0.3512855508,-1.4374968125,0.8761693995,0.1763457437,0.0942926879,0.1730226123,-0.6795373898,-0.4293040865,0.5803838755,0.0362913054,0.4650390782,-1.6918854715,-0.5718114229,-0.2009018029,1.0675288785,-0.9924504976,0.0556102586,-0.9521777427,-0.0704532219,-0.8396432813,-0.0246446518,0.5291358551,0.0534702067,-0.151818492,0.0007534921,-0.7344905241,-0.2883756921,-0.1737483275,0.2093996642,0.2290386674,-0.7954175678,-0.0038235537,0.6023750625,-0.8661449103,-0.1753191554,0.5168346245,0.5845877501,0.3874698922,-0.7125472119,-0.4907249912,0.3704801657,-0.1729021962,-0.1540694297,0.4587497603,-0.3537975916,-0.7031803343,0.1441027609,0.1108186005,-0.0959523833,0.2037492186,-0.1563160695,0.5649672706,-0.0400013653,0.0122632479,-0.4003795381,0.5972286593,0.3490699898,0.9478272317,-0.6394542593,-0.2526886485,-0.6123906613,-0.1909315786,0.2561131117,-0.6649704127,0.7822980175,-0.4957380168,-0.3609382457,-0.8829724446,-0.7917373395,-0.0000288772,0.0897166263,-0.8901692672,-0.0671370532,-0.4300868322,0.6142375617,0.4517969695,-0.6605419885,0.66039279,0.1237128658,0.1366739332,-0.0000647224,-0.0188196011,0.2241865057,0.7475321401,-0.5739369647,0.0363227854,0.2783277791,0.3121047991,-0.6292758723,-0.4942139322,-0.2072456466,-0.2110507265,0.2831571307,0.8541338451,-0.0670614525,-0.3907701853,-0.7294549405,0.2015293006,-0.3241506943,-0.3024854088,0.5386340381,1.1087578579,0.7690474585,-0.0039724422,-0.700585298,-0.6246151769,0.233192744,0.2176970517,0.0110014301,1.0152513357,-0.4503871553,0.0360507859,-0.4959504587,0.1453743131,0.6119996471,-0.0000407034,0.8152120943,0.2511335296,0.6670232973,0.881942161,0.2756188748,0.0965270359,0.5166763469,-0.9346785905,-0.3000029346,-0.0482759799,-0.2838570081,0.9264319323,0.104958034,0.9877477561,0.4277828659,-0.4838939034,-0.3227862002,0.0999402701,-0.0316852759,-0.7081954966,-0.2828172932,-0.1453944698,-0.8932979003,-0.8915809581,0.4486391673,0.8553181529,-0.3149079005,-0.4483658022,-0.415275546,-0.4829914418,-0.8775425724,0.8870770983,-0.5744811805,-0.7689303949,0.3868900294,-0.3726445065,-0.0530591079,-0.782190707,0.4618589346,-0.2506351235,-0.5291280736,0.0382713368,0.0930216383,0.848295133,-0.9189181771,-0.5903613356,0.1415868281,-4.4091381234,-0.6432176248,0.8150110382,2.2128334242,0.7026527657,0.7672733207,-0.9204988119,0.1061658674,-0.1262834783,-0.8393108262,-1.786498864,0.2483451472,-0.9330024658,-0.7753953503,-1.2131707746,0.9239183703,0.9064081199,-0.3809525876,-0.8153002107,0.4285403648,-0.8117105448,0.0286965368,-0.8746652524,-0.3805462497,-0.292821337,0.0176476572,0.7328862351,0.5898605678,0.8180602293,-0.4630480063,-0.2809144578,0.4282200917,-0.2202842126,-0.6604916789,-0.1054836348,-0.3190779144,0.7201463669,-0.5576004235,-0.2810613568,0.4094633368,-1.1756422074,-0.1668732119,0.529919811,0.355589939,0.0764753747,-0.0020765388,-0.0784566015,0.8725407799,-0.3173295489,-1.6167235911,0.8043105714,1.1579679501,-0.4912297104,0.6858695179,0.3957142528,0.140465308,0.4789432773,0.1917501063,1.1739483775,0.5562916932,-0.2119850633,0.2349881078,0.4502453204,1.367484374,0.6911304933,0.0381730402,0.5000639488,0.7949995881,0.0073452119,0.0360202106,-0.3794291058,-0.0273406529,0.519499501,0.271498477,1.1857852365,0.2989557946,0.8106008346,-0.2072694674,-0.6760438726,0.7677882316,-0.8161944561,-0.5488059376,1.0338235415,0.1154782724,-0.1971932107,-0.1646986634,-0.1924481813,1.0847940494,0.3277957125,0.940290162,-0.7379269577,-0.1732281144,0.040363721,-0.1599526211,-0.6044954943,-0.8416879621,-0.7131931019,-0.4070273376,-0.3179093681,0.9862102242,0.4896500721,-1.6161476641,-1.5024300229,-1.2949101159,-1.5423670792,-0.3901687103,-1.9898157757,-1.6999986125,-1.9240860365,-0.6224756555,-1.087633266,-1.9726349093,-0.3492781406,-0.2376005388,-0.4531841061,-2.0124367243,-0.241004358,-0.681749792,-2.0152424146,-1.1124819347,-0.6809018437,-0.8627505851,-0.6521662731,-0.0757466982,-0.48273187,-0.8613735448,0.1316170095,-1.0124906532,-0.1388233287,0.3117005736,-0.2277466331,-0.8684358522,-1.1458594882,0.2096886045,0.7123506326,0.2562620095,-0.8862749118,-0.4713411729,-0.4663702305,-0.7539271621,-1.1889083071,0.4993023835,-0.4176222981,0.6172904729,0.7903495939,-0.4347089934,-0.9997102422,-0.1672786612,-1.7717092658,-1.0114777094,0.1206764047,-0.7234436059,0.7268702375,-0.2150035055,0.6695601049,0.0666461095,-0.7415866745,-0.9715070707,-0.2366314902,0.7427767585,-0.3008923362,-0.9549534414,0.7421370801,0.7526721188,-0.6003156656,-0.8788033635,-1.1167917795,0.5939876883,0.7946383934,-0.1369344731,-0.8885773118,0.1210007209,-1.3676736484,-1.298807428,-1.1153183043,0.5591493103,-0.1547412257,-0.3720741644,-0.8042955065,-0.9078328568,0.2843185839,-0.1798528366,-0.4058977671,-0.1519694257,-0.5223941361,-0.449657494,-0.2198595569,-0.6556737069,0.2157649457,-0.8504096701,0.6143919427,-0.3048925898,0.4608635571,-0.1910379644,0.5669529112,0.9152559158,0.85190245,0.9583844595,0.2764668039,-0.6263824125,-0.4495772972,-0.4926740709,-0.126985897,-0.4546796141,0.4531809738,-0.3728125676,-0.3607302425,-1.0679200477,-1.0594063918,-0.6940577592,-0.0944164469,0.220225232,0.0627543674,-0.1983265991,-0.9690953575,-1.0073778313,0.8451807287,0.1932491456,-0.0185494089,-0.2662671308,-0.1000840763,0.2612867381,0.7998940382,0.0979969369,-0.7648590824,0.2056109893,0.0141580473,-0.272621114,-0.6304952535,-0.3117437842,-0.234144054,0.1513192821,-0.11264706,0.6231075403,-0.0222978467,-0.0364267133,1.0739334464,-0.5926657943,0.1975254697,0.3719938044,-0.6329733834,0.1347712113,1.0851928475,-0.1838593182,0.1676966754,0.8004308318,1.3297589828,1.0609421844,1.0713494618,0.2064442334,-0.422778335,0.4100414907,-0.2457111281,-0.5209063138,0.4374319179,0.8131534613,-0.2976928973,-0.2701974501,-0.8211233809,0.3925261017,0.1618929709,0.8455607063,-0.935802672,-0.1675617693,-0.3833214595,-0.3008597061,-1.0266568332,-0.8784362809,-0.0761300805,-0.3038596287,-0.013957302,0.7832809061,0.1902687581,-0.0880883701,-0.2169361,0.5259899107,-2.0031741155,-1.6200914468,-1.3560916933,-1.0795454109,-0.5558543156,-2.017026153,-1.6903823531,-1.4711045867,-1.5365332583,-0.7253468515,-0.5976656948,-1.7688075209,-0.9164591334,-1.9505386872,-1.0537970247,-0.2426001085,-1.3585566509,-0.1511171443,-0.7201652899,-1.5456931358,-0.3140665516,-0.3539251362,-0.6011078215,-1.3740980427,-0.8090183777,-0.0504829147,0.7616193584,0.3681892461,0.3463093358,0.7750392279,-0.8942917455,0.5174926072,-0.891621675,-0.2344386611,-0.8674744504,-0.9274969808,-0.467231973,-0.3187264866,0.7522531283,0.1729973457,0.8656257234,-0.7586304457,-0.5914515691,0.8729080738,-0.484869684,0.2420121477,-0.3047414612,-0.0052619686,-0.068945013,-0.6302647404,-2.0515940729,-1.435288214,-0.2594335595,-1.0032312557,-0.9309817312,-2.0222521319,-0.5090184334,-1.3823321556,-0.484301379,-0.3581548066,-1.9672786676,-0.8013545479,-0.5570150317,-0.4247936076,-0.8079356141,-0.2285813922,-0.4561070101,-0.7220519643,-1.0531044231,-0.8649579915,-1.0761140148,-1.6609072522,-0.7802135245,-0.6126528212,-1.6809984115,-0.0803616057,-0.079618494,0.1801693265,-0.7653365663,-1.2702705599,-0.3666400942,-0.155610841,0.6824623649,-0.2895528982,0.5495620972,-0.0780503446,-0.3636336287,0.4812981238,0.7064718418,-1.1013979637,-0.9518221833,-1.1213854117,-1.0022350952,-0.7608228165,-0.1033942075,-0.8234077515,0.4715554078,-0.5180596433,-0.5740470602,-0.0689475145,-1.8789411501,-0.9283985743,-1.2188806331,-1.3627390889,-0.7359060513,-1.0085909365,-1.1548887665,-0.639443922,-0.7169235767,-0.533136267,-1.4730639046,-1.6055891115,-1.179381009,-0.5836330998,-1.2638797844,-1.6972924899,-0.7582841031,-0.3607445603,-0.6187144338,-0.8014442331,-0.8308158099,0.0451679195,-0.0786090921,-0.5623905972,-2.0148309724,0.1638438726,-0.0919363644,-0.3935405422,0.5129932031,-0.5381791814,-0.1372185392,-0.166786052,-0.4153248508,-0.6748307733,0.308090291,1.1069315546,0.8463541597,0.9658971218,0.5747238618,0.4874579326,0.2890817515,-0.1738312875,0.9515434628,0.9828203612,0.9209609315,0.567315703,-0.5303843068,0.2491735282,0.5366350596,0.5220441458,-1.4053212139,-1.650341811,-0.452640912,-0.4221815447,-0.5288111293,-0.2474712684,-0.6763876583,-0.4292076666,-0.3050611008,-1.2683017494,-1.2983341766,-1.2209154223,-1.7424193584,-0.410754286,-0.4068886746,-0.6600596943,-0.3212236503,-0.3894820626,-0.8835484194,-1.884651211,-0.9666556203,0.0070622622,-1.0297554731,-0.3368317177,-1.5846183814,-0.0966989921,-1.2633630323,-1.4006804057,-1.7962739582,-0.2208730042,-1.8660831958,-1.4676424695,-0.8341514411,-0.695076003,-1.7879926098,-1.4530361917,-1.9029339762,-1.6630046958,-0.3507145322,-1.1641980464,-0.8292708528,-0.8377909727,-1.0072599059,-1.6197826863,-0.4820186461,-1.1181503076,-0.0723143162,-1.2395998826,-0.0969798187,-0.7394787172,-1.1954183101,0.7838603487,0.5741105768,0.4402286839,0.4518469153,-0.1705664004,-1.162344831,0.3434283234,-0.8399533865,-0.7523641934,0.5784663193,-0.7107183953,0.6618339536,0.2033691551,0.0255262356,-0.6332245632,-0.1433414177,0.6481629766,-0.1144486273,-0.6052146036,0.1648388982,-0.4667495986,-1.5150820968,-1.8489766293,0.2551504278,0.037384842,0.6249279898,-0.2323561495,-0.5021092142,0.0133959244,-0.3250652612,-1.0232917743,0.1731718919,-0.9433540575,0.126115248,-0.7643047128,0.225472363,0.681392451,-0.3955201154,0.2667352723,0.307475391,-0.3914562137,-0.8604403885,0.8702264408,-0.1267139538,-1.2884151389,-0.8783245737,-1.7401446579,-1.6543474067,-1.1366979577,-0.9051133732,-1.0949204312,-0.9633720529,-1.7106823172,-1.5423790992,-0.2685511169,-1.8368911517,-1.5255675969,-0.6384774111,-0.4742152345,-1.0983091664,-0.629977272,-1.1971397898,-1.8504775029,-0.442608286,-0.5108809433,-0.7328581107,-0.1528513477,-1.6334757584,-0.2099495046,-0.6343795976,-1.0842002914,-0.9707394036,-0.4508504322,-1.1623974017,-0.3023867719,-0.0913675741,-0.0434699896,0.5448543569,0.956345345,-0.0470372701,-0.8104584657,-0.5859402372,0.9980157519,0.8520270431,-0.6613586681,0.7315441995,0.6878642178,-0.7784481879,-0.827454781,-0.6479918699,-0.0494368739,-0.8872735292,-0.3018807418,0.4573634348,0.165831981,-0.3056979677,-0.524270556,0.0622223709,-0.885761495,0.3083079128,-0.4772552408,0.7699913038,0.8488277338,0.4677057288,0.712487434,0.0469591673,0.5734506513,-0.4857932932,-0.6314903213,0.4641179885,0.8483855903,-0.0698246695,0.7777122614,-0.0848746991,0.5228825809,0.2068053104,-0.7009279649,1.0331298485,0.4549029356,1.2750118609,0.6035378828,1.2555224618,0.2609984767,1.1553483331,0.8145003185,0.4436288692,0.653223483,-0.0639002163,-1.0910874589,-0.3368007725,0.3831209221,0.2319469565,-0.9781401964,-0.2492129155,0.8294360181,-0.4855262979,-1.186786487,0.2633428735,0.352200901,0.1408171836,-1.0864544774,-0.371800738,0.8415893326,0.1218474458,-1.0800379056,-1.0021243633,-1.3832681953,-1.3906169217,-0.6683983211,-1.0422673494,0.4498776181,0.3756931463,-0.9278147449,-0.9805487769,0.4932784162,-0.8689129172,-0.2693329475,-0.3142279821,-0.8217134425,-1.0830483004,0.2629269514,0.6600656746,-0.2469061701,-1.0180379425,0.387170941,-0.3039747165,-0.6053494482,0.2411366467,-0.1833366099,-1.2363254256,-0.5849453143,-1.4436857917,-0.3261491234,-0.8111848597,-0.6078581727,0.1437110713,0.8493146875,0.4350548574,0.2787849057,-0.3611840552,0.9954846754,-0.0253592477,0.8960174529,-0.0076199203,-0.6814771396,-0.4407726518,-0.2013785806,0.8039149752,0.1637974612,-0.3790048398,-0.491535928,0.1724203843,-0.2117754326,-0.2056136763,-0.7030961435,-0.0686670456,-0.3324725276,0.7432840015,0.4130701026,0.2786102982,0.3591265299,2.0795137729,0.8755082271,1.3944600205,0.3262293172,0.1327969981,0.2887912853,0.3177363658,0.5557171477,0.9244479331,0.7142628114,0.0838480337,0.723336485,0.9145943299,1.9611592986,1.3077880103,0.5477513782,0.9364534074,1.3806736358,0.5849157519,1.15920014,-0.4722828345,1.2561362619,1.6744518771,0.7697903154,0.9403371942,1.4443502009,0.0919464866,0.3119050309,1.4261574191,0.4356339054,-0.4555804801,-0.0260788997,-0.5165608025,-0.1832340919,1.1447459243,1.3558226664,1.1729326559,1.1949907861,0.3887510277,0.1740083103,-0.2634738475,1.1895417636,-0.291986333,-0.2459473824,1.0366781524,1.4189093891,1.6388637506,1.376212063,0.6340814815,-1.1367793666,-0.8172278776,0.6613853764,0.3558894404,-0.0795891745,-0.5565969632,-0.3195428463,-0.9000763629,-0.1885043116,0.7696752731,-0.0166835676,-1.0822104564,-0.0793765461,-1.0390270525,-1.12845635,-1.0698104514,0.658439648,-0.5542276531,-0.0646158692,-1.2647544909,-1.2874753931,0.0143472728,-1.2681425966,-0.1087173094,0.7944600063,-0.4401816479,0.0694333028,-0.5493708004,0.3658020981,0.2140067568,-0.8743192015,0.8452175535,-0.8497639924,-0.1503315414,-0.1104709968,0.8320252783,0.3280722809,-0.313678292,-0.1444319908,0.7589702078,-0.503101844,-0.4862327425,0.3363135539,-0.6277094936,0.4932129535,0.1190905229,0.0032577946,-0.4457881878,0.6476958488,-0.2541506271,-0.3617856632,0.2378773614,0.0190173104,0.3649355056,-0.9069774878,-1.2056873442,0.0099638421,-0.2779251877,-0.4104853467,-0.8525336753,-0.665649212,0.3613781128,0.5619809057,-0.386611884,0.2288287069,-1.1895837672,-0.4368554048,-1.2577389451,0.2361336426,0.1091063279,0.018058799,-0.5095870616,0.4979599246,-0.1591745872,-0.3354787931,-0.6988351845,-0.9458120472,-0.8344004415,0.5114525775,0.9261092435,0.784237381,0.6340596505,0.2023569629,0.88228005,-0.5168475405,0.1032488233,-0.4081102771,-0.4270158984,-0.785111009,0.3327391997,-0.0037074748,-0.6535633262,0.1685435253,0.2650190189,-0.5636444589,0.2360995316,-0.0569609092,-0.7889914297,-0.389777416,-0.1622464355,0.604651969,-0.5436000981,0.4197626047,0.6024438217,0.2001332689,-0.2473388624,0.8555042694,-0.582260148,-0.0620960733,0.7054387656,-0.2515502565,-0.0142672769,0.0056368628,-0.3346694072,0.4228787758,0.7445401885,-0.1715109998,0.0052980966,-0.3306617033,-0.2991849871,-0.5712757241,0.9589710403,0.6851226989,0.0880537118,0.1481418227,-0.0359161777,0.2296432964,0.0233670246,0.4078779217,0.5640604945,0.5585067966,0.303284697,1.0593725513,0.6043252224,-0.4180322648,0.9592870704,0.4683551899,-0.0642005199,0.4069239833,-0.3989328037,1.001882703,1.0678708945,0.7583096479,-0.0443433842,0.7678326609,0.4824828373,0.3407777034,1.3651732864,1.0244205519,-0.0135711218,0.5511199989,-0.0985348498,0.562039125,-0.7268135811,-0.7613231831,-0.552382152,0.6165725074,-0.4629106806,-0.7150929919,-0.278995668,-0.5832803862,-0.389071659,0.5326297232,-0.073957046,0.3151294674,-0.0973048793,0.5467049796,-0.9500593201,0.1555124914,0.2757593648,-0.0407063145,-0.3145788501,0.5413527622,-0.5483105658,-0.0645144417,0.2935258897,0.8311839461,-0.2686626119,-0.1909637375,0.3537339739,0.1136058356,0.0891784133,1.2789318534,1.0629413829,-0.1952239664,1.4835074658,1.4099932269,-0.2205278293,1.479218245,-0.0830139728,0.3858115424,1.3263757221,1.0757618435,0.1577766957,-0.3384997675,0.3431690969,1.5486166167,-0.0726424048,1.2792200174,-0.6195219892,0.2219999348,0.8013293521,-0.562668882,0.6518805559,-0.1275347819,0.8456213783,0.6831402706,0.6835021276,0.86279235,0.0492473985,0.0417725799,0.7277166054,1.0112867024,-0.6752477408,0.3717277739,0.7870142365,-0.530743835,-0.092423835,-0.546200727,0.5266224007,-0.2663170872,-0.1728709492,0.7702296877,0.7628480572,-0.9319533605,-0.0497297983,-1.1483279005,-0.488819377,-1.2267266277,-1.6970631646,-1.5189279961,-0.6290928831,-1.8183509802,-1.5253285122,-0.3379085013,-1.6041238307,-1.8092275521,-1.4057036942,-1.8556511541,-1.6631456527,-0.7138905155,-0.2362294661,-0.9119154493,-1.9339192766,-1.2938736069,-1.846977801,-0.0211495472,-1.4016972229,-0.0405386786,0.7187338829,0.0949957002,0.5014506695,0.2161832121,-0.1492458976,1.0141752795,0.0578925913,0.4922691974,-0.3139665852,0.7691811222,0.3518888649,-0.3319427435,0.9962196757,0.8732525138,1.1162272003,0.1394876349,-0.1931005618,0.8865939032,0.9877409809,-0.3890334928,-0.0275217871,1.2615014238,-0.0608382626,1.1914041746,0.4856056276,-0.0370767764,-0.8098400069,-0.060037258,0.9560428855,-0.2211341227,-0.4158922195,0.082242249,-0.0848191818,-0.4238240022,-0.8246619132,-0.4478893847,0.1096511872,-0.6853331842,1.1347186143,-0.1558066276,0.3785439367,0.3181604416,0.3650751873,-0.5720782946,0.9043363236,0.3282305901,0.9598631164,0.393541152,1.6358916551,-0.6149726745,-0.6343969155,0.4505491148,0.665543346,-1.0441150817,0.3416482288,0.696166978,-0.8200539045,-1.088599621,-0.4825847489,-0.7388463064,-0.2829714448,-0.8256540565,-0.2385495151,-0.7371680433,0.362755008,-0.2620378585,-1.0231571072,-0.7034700326,0.4271383692,0.614014534,0.2675566312,-0.9147244321,0.8047896929,-0.9188320094,0.7042144008,0.6894552442,0.5755638579,-0.4603664971,0.2804588365,-0.7497074489,0.5992345462,-0.2756000583,-0.3757146847,-0.2086295167,0.3385042115,-0.5950322981,-0.4478695984,0.7656430267,0.2370644468,-0.3122723264,-0.3205796812,0.4706004346,0.5760068094,-0.7527035751,0.393637961,0.1510212105,0.8398798514,0.1051792271,-0.5446325547,1.0081883748,0.9983220229,-0.4723705949,0.8822881001,0.0597437274,0.5214336151,0.649312661,-0.7533730933,-0.2514568892,0.6113188754,0.6109518504,-0.2844469411,-0.6311115908,-0.6632836557,-0.4396713207,-0.4861279802,-0.8407312873,0.5675301796,0.7635869038,-0.0526989892,0.9120625421,-0.4253023588,0.9348286466,0.9389168208,1.0215685032,-0.3442752159,0.2420439661,-0.6541860987,0.5724589243,0.4025141622,-0.2078526039,0.1136985715,0.2050286809,0.6929429682,-0.7504615562,-0.6943028082,-1.0160584282,0.9020291636,0.7744208213,0.8637493897,0.2982213149,0.6827664278,-0.1752348344,-0.106208655,0.2412838468,-0.5899741813,0.005003214,-0.8464269553,0.5231544524,-0.0801915723,0.4204195178,-0.8544813172,-0.3858846061,-0.2170279636,0.3974115279,0.2548295547,0.8207014567,-0.8722585531,0.8900766657,-0.7088766869,-0.6132244441,-0.2537543513,-0.6514619738,0.8561604053,-0.8079022908,-0.9375163517,-0.0111684742,-0.926357629,0.382388714,0.9412998324,-0.1077776023,0.1269483927,0.026882794,-0.3148701079,-0.7662344192,0.1242056578,0.5753451109,-0.2678843176,-0.7878447191,0.9114298563,-0.9384039404,0.8360069399,-0.3249325509,0.5294146015,-0.0419147212,0.3948130613,0.9583879398,-0.3653047556,0.254923333,-0.3458847301,0.4237355459,0.7116290195,-0.6540427451,-0.1932279186,0.9981461864,-0.3077985934,-0.492000888,0.3877467819,-0.8224436372,-0.1388886675,0.5787064814,1.0138407544,0.7581890897,-0.0967963464,0.9079686329,1.3089920138,0.1133741113,1.3008049544,0.5546656388,0.4617259464,0.2871696833,-0.1898316588,1.189810165,0.4655627857,-0.0050703872,1.1253369791,0.6667654763,1.2924111863,-0.0247426521,0.8326978012,1.3223015337,0.7967789434,0.0763993621,2.048327803,1.5721504227,0.0129514458,0.4003791536,-0.3650634147,-0.9876591117,-0.350273223,0.0409740467,-0.5655446762,0.7537369247,0.17896776,-0.9045485078,-0.7531906268,-0.5664425955,-0.1060223487,-0.4147565745,-0.282124006,0.7408356565,-1.0101125914,-0.3750336029,0.7054657112,0.5158982456,-0.014154481,-0.2855769998,0.8731297331,-0.1749006678,-0.0381015843,0.2499680737,-0.1582363307,0.6191962644,-0.4379277537,0.5990960842,0.0898025528,-0.9534246223,-0.4232156789,0.132341074,0.2513065082,-0.5795517631,0.0659228275,0.2791236846,0.2256962156,-1.1829483577,0.6653862215,0.5130267158,-0.0259142576,0.7194090076,0.1804647662,-0.5253215694,-1.3825247051,-0.4104599859,-1.6102694332,-1.4921738003,-0.834539064,0.0863583646,-0.1733612725,-0.356083169,-0.755027533,-0.9270535011,0.083017344,-0.831540455,0.4344668415,-0.9357860365,0.5527109221,-0.0041622907,-0.5498229883,0.6884946388,-1.049609165,0.6173794623,0.1674921768,0.6727139746,-0.8890950125,-0.6147329007,-0.9934954031,-1.3583177602,-1.1511078254,-1.8233948387,-0.6524396632,-0.8790596378,0.5729268825,1.8083451859,1.8685959207,0.2484015563,0.4402049598,1.1061169792,1.7741580703,1.2974156228,2.0689367038,1.6311771583,2.1188337868,1.440557767,0.6417389019,0.6521062657,1.3133197354,2.0331718777,1.1781735225,1.9820466242,1.2741743366,0.6700037479,0.4380398112,0.9224872383,0.3190776278,0.4411987676,1.6877738863,0.6757180357,-0.0982172907,1.0058549734,0.5851705703,0.3233705182,-0.6657922774,-0.2247610092,-0.2392132178,0.3105610229,0.5101326942,-0.7466732921,0.708227716,0.6826153395,0.7280831525,-0.1847174713,-0.7707685107,0.1568612514,0.3506189496,-0.7624605503,0.6917307716,0.8597940343,-0.5060868532,0.3802593685,-0.4699822806,-0.3982304293,1.2189359197,0.8631712685,-0.1792194874,-0.1460177605,-0.1765907134,0.2199202272,0.8408955399,0.3471337184,1.0644967639,-0.3212377119,-0.34314912,1.016957676,0.9126857658,-0.2076924799,-0.5443152676,0.6510029664,-0.3015791804,-0.5481554923,0.4486078828,0.5632155811,0.0265044167,-0.5041142159,1.0501079561,0.4070993024,1.3042392917,-1.3770060637,-0.2506242086,-1.3635644485,-0.1305331409,-0.7429364792,-1.877857493,-0.1536791708,-0.9815696364,-1.3467906515,-0.6732195828,-0.3116567085,-1.0602497779,-1.0995350566,-1.0288481103,-0.7109357775,-0.4100950736,-1.1229606501,-2.0269366769,-1.9109004694,-0.7277004081,-1.2215417908,-0.61002207,-0.369335294,-0.0022764706,-1.2360368812,0.4897800494,0.7419450275,0.7535052376,-0.8321328472,-0.8101539845,0.5657330205,-0.8427717256,0.5006511141,-0.6717702815,0.1076101147,-0.9752233127,0.0095300683,0.4468807792,0.837608507,0.1723988436,0.4942698574,-1.0692232062,0.1143187472,0.227714074,0.1350786559,-0.423542485,-0.542992814,-0.2954782488,0.5060962098,-0.3833393982,0.3816836774,0.3473958302,0.3207288947,-0.0499638749,-1.2630510059,-0.396810872,0.1599704087,-0.6466653952,-1.0988739618,0.5670685891,0.0868333212,0.6685928438,-0.3275145566,-0.6246326187,-0.037373242,-0.9850297558,0.8104009162,0.0492989685,0.676643487,-0.2867189106,-0.9493862544,-1.2332411214,-1.8486110511,-0.1340490443,0.1677652123,0.8002539848,-1.1300474528,0.453473044,0.3160229139,-0.430427443,-0.5958939351,-0.5604709833,0.5320719308,-0.4956321343,0.0887104516,-0.4505033443,-0.7942925633,-0.171209723,0.3845461467,-0.2893192043,0.4122586551,-0.3715235524,0.0027109887,-0.8662174316,0.2389190145,0.0776704368,-0.4083462785,0.6119914628,-0.5739257426,-0.0788783961,-0.4306523636,-0.5369147592,-0.5742588631,-0.5782572476,-0.409879107,0.7889809495,0.0846966582,0.6529949661,0.991768526,-0.6912204327,-0.7290984988,0.9702668045,1.0665746416,-0.4786487071,0.1115246882,0.3123965979,0.9674927521,0.6082390354,-0.2012846704,0.3478813501,0.972215526,-0.3914395552,0.6980892161,-0.265709747,-0.3879638091,0.3947881464,0.5334299978,0.2017701256,1.4302357437,1.1564684415,0.1464855579,0.7035946459,0.2244112919,1.2754292413,0.8780104319,1.5782609335,0.8091707162,1.2027712871,1.3929433096,1.1062667316,0.7146200384,2.021089739,2.0337198303,1.8277065578,0.3043244069,1.1748655056,-0.0307471457,0.840421677,0.975278035,0.8720837348,0.0703176411,-0.6827737091,-0.3502814847,0.0958932209,-0.0066519223,-0.3477917627,0.0883417698,-0.0384365423,0.2789435472,-0.0560707984,-0.4050763753,0.4089019612,0.9000270601,0.7267315825,1.2349121471,0.2498442452,0.8191035874,1.1150902498,0.5504995718,-0.470963829,1.224763358,-0.3703855644,0.3047831537,0.8596670414,0.2188716485,0.5540692569,0.1691486481,-0.4813648115,0.7200722887,-0.448391415,-0.8180587526,0.1235046211,-0.7191204821,0.3991469379,0.3968915128,0.4558851694,-0.2434979635,-0.273523417,-0.9078601688,0.9551705009,-0.5668623868,0.3388379444,0.9421592511,-0.8735488154,-0.1955525644,-0.9207778375,-0.230763796,0.2430798739,0.4215096738,-0.6835870977,-1.5906149142,-0.6204005571,-1.8213907908,-1.6663032936,-0.1951240858,-1.8465415098,-0.1961583678,-1.952553146,-0.2433329574,-0.8137885862,-0.1545899772,-1.9031343819,-0.7398541389,-1.4715092374,-0.3028712395,-0.1571469855,-0.2927493862,-1.5714720101,-0.8805023056,-1.3332112493,-1.2616435397,-1.7347058163,-0.5455683974,-0.1700495152,-0.0573147771,0.1536713295,-0.0080523758,1.0806674716,-0.0107619819,-0.4816787892,1.0300016632,1.4121373522,1.4177454604,1.2521332231,0.7984100795,-0.3022250966,-0.5395729888,-0.3567983829,1.1189687267,0.7937674251,1.2604000283,-0.0653652566,1.0798078208,1.4018023549,1.1613102842,-0.08296297,0.8714222783,1.5755320898,0.7912814808,-0.4899632287,-1.1563773307,0.4695600144,0.271282802,0.2120442682,-0.4786112323,-0.0566578899,0.1527964306,-1.0275736984,0.3549037213,-0.7748212808,-0.4552062135,-0.448245013,0.0239342775,-1.0615810895,0.734669364,-0.5905367904,-0.1887574904,-0.4765195647,-0.787679203,-1.0168413743,-0.966064724,-1.0879157082,0.0893345598,-1.0723030102,-0.7729493794,-0.8387182466,-0.3417873899,0.1145052741,0.2307119611,0.0180162341,-0.926769286,0.5776153241,0.4492093171,-0.1026267035,-0.6052427118,-0.3966474462,0.420023428,0.452820975,0.6491401799,0.6737966878,0.1606775447,-0.2015170773,-0.2858088402,-0.3903307865,-0.9603661107,-0.6412937385,0.7053093144,-0.0432052781,0.2517115779,0.2313948578,1.7364569653,0.1218456286,0.7119090973,0.9739927636,1.1325672448,0.1761235815,0.6518152262,0.401644297,1.047270354,1.2276769857,1.4015551135,0.7524665384,1.5219933739,0.4125729598,0.6639887556,1.323795879,1.0599610814,0.8867063691,1.0339094623,0.1799483737,1.4992148146,1.0647291374,0.3042552743,0.6184699687,1.5803347809,0.8796440977,-0.2134382072,0.0276100876,-0.7402955533,-0.7170490207,-0.0357243327,-0.9882841564,0.585478958,0.7169153166,-0.1360926559,0.8763767449,0.8181408595,-0.8093837176,0.215666594,0.5985126163,0.3314518021,0.0338896705,-0.1210198093,-0.0796188218,0.597420648,0.2926409361,-1.0408521993,0.5974568745,0.9198230294,-1.0577146048,0.7806002302,1.3389676129,1.5456887638,1.2297164566,2.0440124752,0.7130019227,0.951053236,1.4955227696,0.362839427,0.4106833733,1.9719022559,0.6004774685,0.487836226,1.1517370702,1.1882992874,1.3136286984,1.2111490582,1.4671436355,1.6299384328,0.2213539382,1.6205747591,1.0120624519,1.3487163856,-0.3426460749,1.0815209513,-0.8101271566,0.0227812977,0.8491283034,-0.838886339,-0.9639446477,-0.4272932798,0.4423200984,-0.0797701871,-0.046983408,0.034978111,-0.0708960358,0.4920248634,-0.7479656693,-0.0807002461,-0.3924480361,-1.1163997158,-0.6843208795,-0.0249659882,0.4733138,0.4848260667,-1.4173348614,-1.311771166,-1.1272250576,-0.2135868992,0.2179603463,0.2500278712,-0.0331252189,0.8516473737,0.6238333093,-0.7919464724,-0.5610483141,-0.424153023,0.186079042,-1.2200241174,-1.0824347757,0.3971948223,-0.2866430454,-0.8812466269,-0.9101921508,-0.0827795089,-1.1896918468,0.5621619955,0.2164178032,0.2648386481,-0.1451622742,-0.342839264,0.0332787233,-0.2378842143,-1.589041572,-0.9714883571,0.4242623169,1.2584981078,-0.1194822285,0.9706039383,1.0820453118,0.447590257,0.0444048285,0.5591540452,-0.2722315874,0.5128962345,0.5760725798,0.0088510589,0.3413310901,1.3235526791,1.4326549633,0.662793441,0.1210193575,0.4350161652,-0.180760307,1.2170664231,-0.0047544836,-0.3845348338,1.8773327152,1.0040607966,0.8136278351,0.1205013913,-0.3801732835,0.8195364716,0.9821996425,0.1465511691,0.8058712599,-0.4068316773,-0.8413291301,-0.7565779717,0.1147505455,-0.0645834489,-0.1669983962,0.2354878515,0.4799564172,0.5245168392,-0.5790386834,0.749066003,0.0516934334,-0.3127321108,-0.6260481605,0.5966709649,-0.4850140941,0.9141375525,0.0658767114,-0.1905753221,-0.408025888,-1.0617840738,-0.3405996083,-1.3706435262,-0.7057486345,-1.2127323975,-0.1645167078,-0.2100124113,-0.1706736597,-2.0311986921,-1.7652533082,-1.857378686,-1.6122981798,-1.628701921,-1.2790387356,-0.619016878,-0.5697063658,-0.426706353,-0.695953567,-0.927292678,-1.2673527849,-0.8688687716,0.129513728,-1.1114960143,-1.2715901611,0.649005566,-0.7761231974,0.0085627718,-0.3208666129,-0.2205031654
   1.1538467589,-0.5898018106,0.4617232933,0.4264725069,-0.2820617615,0.8671728764,0.0560269854,-0.3256235149,-0.7764953478,0.0906396496,-0.7973142932,0.0895974885,-0.0629361777,0.9670541915,-0.1615488703,1.3201409034,0.3487601541,-0.099177871,0.9563568849,0.0076331394,0.4221909877,-0.5707593596,0.7796638871,0.8230095758,0.0140988094,-0.6443271556,-0.4746894476,-0.6235494905,0.1938518641,-0.4473632046,-0.1539453348,0.5765210324,0.4527441543,-0.3664568268,-0.5654187279,-0.2708642059,0.5493380994,-0.5447858689,0.0266753402,-0.7046139641,-0.3731750189,0.7929395671,-0.2973417409,0.9628564165,-0.2963329247,-0.2894371053,-0.1656073654,-0.2910582755,0.6268880607,-0.0136769708,0.1643492304,-0.824038582,0.7778351837,-0.972541908,0.4746259351,-0.935817465,-1.0142851609,-0.3480338333,0.2657229454,-0.0196390295,-0.2611618979,-0.7794148444,-0.98450426,0.0803889737,0.4168322322,-0.0515784266,-0.6409220615,1.0443178723,0.2431692143,-0.3138926524,-0.8749658029,0.5723816795,-0.3135172536,0.0243048249,-0.034314284,-0.3533635157,-0.9030422173,-0.1234672691,0.0389703058,0.2374370353,-0.9637225334,0.9680894523,-0.8288295073,0.972366004,-0.2493471862,-0.9640776819,-0.6937803531,-0.047746597,0.7736560327,-0.4652376624,0.179552675,-0.6573441073,-0.4600156015,-0.5669438028,0.5082555305,-0.5883392076,0.0318379801,0.232074948,-0.2403938344,-0.3402228392,0.0758556772,0.2118286496,-0.0490591865,-0.4888671794,0.0455262856,0.4477099968,0.5819954235,-0.0202585029,0.3262893361,-0.6947048424,0.1943420154,-0.1972388044,0.6774061681,0.9942862,0.5907434333,0.2328309963,-0.2556446293,-0.352078792,0.3709354551,0.9231752725,1.6593127818,1.3121670778,1.1104437584,2.0850024984,1.5476248292,2.0647578712,1.4263331987,2.0690341222,1.7752079064,0.7737537759,2.0535272192,1.7615295967,1.1581143433,1.862509796,1.5776607697,0.8502897249,0.5957450037,1.516941337,1.0924087731,1.5400644529,0.2469300762,1.8220670499,1.349101576,0.8416014325,1.077672003,0.8488258499,0.1212251434,-0.6938965506,-0.9939499918,0.2656548089,0.4493399067,0.579890498,0.1425251788,-0.3597379095,0.8002904686,0.1571705509,0.5305856921,-0.9562730567,-0.1200385875,-0.233440835,0.2220328149,-0.9687639531,0.6980747336,0.1789173575,0.3985452054,0.0082044529,0.8638353326,0.523456081,0.4247028718,-0.0928044885,0.2067120859,0.0955221898,0.772713535,0.2901680755,0.2441729002,-0.9358586086,0.8311681099,0.665813929,0.6989895676,-0.0502550806,-0.5051626118,0.5006475099,-0.584652694,1.0380515529,-0.9656281503,0.0391598555,-0.8256287028,0.9128173814,-0.5352138143,-0.7409484169,-0.701606746,0.4798946609,0.6213944715,-0.9220673562,0.6874107648
##end
biasActivation=0,1,1
[BASIC:ACTIVATION]
"org.encog.engine.network.activation.ActivationLinear"
"org.encog.engine.network.activation.ActivationSigmoid"
"org.encog.engine.network.activation.ActivationLinear"
